{
    "O_Bias": {
        "rows": 2, 
        "matrix": [
            [
                1
            ], 
            [
                1
            ]
        ], 
        "cols": 1
    }, 
    "H2_Bias": {
        "rows": 5, 
        "matrix": [
            [
                1
            ], 
            [
                1
            ], 
            [
                1
            ], 
            [
                1
            ], 
            [
                1
            ]
        ], 
        "cols": 1
    }, 
    "H2O_Weights": {
        "rows": 2, 
        "matrix": [
            [
                -0.4083948053478532, 
                0.5194132795002183, 
                -0.9390311285222792, 
                0.7116166905541486, 
                -1.0596865323031788
            ], 
            [
                2.886016159265392, 
                0.2615031966667165, 
                -0.5028452193006459, 
                -0.8504840602075225, 
                0.38210379529768534
            ]
        ], 
        "cols": 5
    }, 
    "output_nodes": 2, 
    "H1H2_Weights": {
        "rows": 5, 
        "matrix": [
            [
                0.08455582503860881, 
                -0.7676044741885717, 
                0.034408603439674675, 
                -2.1481597334919424, 
                1.9983102002165318
            ], 
            [
                -1.2752060346839005, 
                -1.7090961933671482, 
                0.08152463235253238, 
                0.9019442500309774, 
                1.0024722892599571
            ], 
            [
                0.7350805602434975, 
                0.4803924084128795, 
                -0.5267346439308354, 
                -0.6754535589304178, 
                0.25174348621676057
            ], 
            [
                -0.8501909189445385, 
                -0.5249106700349482, 
                0.32617409104825806, 
                2.4235220885224225, 
                1.2411228031924828
            ], 
            [
                1.9962553157345386, 
                -0.2914607503489417, 
                -1.2125989842144351, 
                -1.5980757885815127, 
                0.3617771095072492
            ]
        ], 
        "cols": 5
    }, 
    "hidden_nodes_l1": 5, 
    "hidden_nodes_l2": 5, 
    "H1_Bias": {
        "rows": 5, 
        "matrix": [
            [
                1
            ], 
            [
                1
            ], 
            [
                1
            ], 
            [
                1
            ], 
            [
                1
            ]
        ], 
        "cols": 1
    }, 
    "IH1_Weights": {
        "rows": 5, 
        "matrix": [
            [
                0.041961054577569074, 
                0.6819241293776529, 
                -0.34175204395289605, 
                0.3368326462623309, 
                -0.32304971719483355, 
                0.08439089893767468, 
                1.395617091258306
            ], 
            [
                0.17582938735549236, 
                0.6695943674761459, 
                1.017611373233093, 
                0.09178728608787179, 
                -0.5819875271953633, 
                -1.2429974321803272, 
                1.5001526608740048
            ], 
            [
                0.3412505157077918, 
                1.4691042885411685, 
                1.0759249806192461, 
                -0.3237987689782735, 
                0.018004166382858622, 
                -1.0516212733380719, 
                0.6002724593275262
            ], 
            [
                -0.5205886194174962, 
                -0.6374607260078724, 
                -2.287756100570068, 
                -0.6413801212839347, 
                1.0247797468025852, 
                0.2039786218951115, 
                1.8946305063459088
            ], 
            [
                1.2665878469697258, 
                -1.321356008524779, 
                -0.19888906149314411, 
                0.12129875058338424, 
                -0.6161565263933556, 
                0.2751258175765804, 
                -0.0555492344170444
            ]
        ], 
        "cols": 7
    }, 
    "input_nodes": 7
}