{
    "O_Bias": {
        "rows": 2, 
        "matrix": [
            [
                -0.8700980647030918
            ], 
            [
                0.6269700667562392
            ]
        ], 
        "cols": 1
    }, 
    "H2_Bias": {
        "rows": 5, 
        "matrix": [
            [
                0.6408077221332016
            ], 
            [
                0.4676914794289042
            ], 
            [
                0.4098857531795783
            ], 
            [
                -0.5163020118062316
            ], 
            [
                -0.9255846998118065
            ]
        ], 
        "cols": 1
    }, 
    "H2O_Weights": {
        "rows": 2, 
        "matrix": [
            [
                -0.848195268510453, 
                0.9262937537295419, 
                0.5966179015654616, 
                0.15436237158060884, 
                0.6337333031882226
            ], 
            [
                -0.05212161090697309, 
                0.688790689296864, 
                0.8596895012527643, 
                -0.5847871781646967, 
                0.5878475597549302
            ]
        ], 
        "cols": 5
    }, 
    "output_nodes": 2, 
    "H1H2_Weights": {
        "rows": 5, 
        "matrix": [
            [
                -0.9000098270634798, 
                0.5083695603088452, 
                -0.34966614435204213, 
                -0.3381882423796809, 
                0.4807201897424074
            ], 
            [
                0.11894960139835087, 
                0.10335016150548415, 
                -0.3614194951554648, 
                0.20504567306800547, 
                -0.3864901901196316
            ], 
            [
                -0.2463732825161975, 
                -0.06321385082794273, 
                -0.5195078370543338, 
                -0.6117396781232043, 
                0.4619943596671041
            ], 
            [
                -0.7562637832901098, 
                0.3466982207217051, 
                0.10424835857255577, 
                -0.3426319045187862, 
                -0.18788200020692503
            ], 
            [
                -0.20470598640574322, 
                -0.9611992478091871, 
                0.8063695371927337, 
                -0.12121694731381671, 
                -0.29456720106346435
            ]
        ], 
        "cols": 5
    }, 
    "hidden_nodes_l1": 5, 
    "hidden_nodes_l2": 5, 
    "H1_Bias": {
        "rows": 5, 
        "matrix": [
            [
                -0.3461961417205084
            ], 
            [
                0.5197555434451813
            ], 
            [
                0.14332061371839377
            ], 
            [
                0.05722009593089172
            ], 
            [
                -0.7185763366823241
            ]
        ], 
        "cols": 1
    }, 
    "IH1_Weights": {
        "rows": 5, 
        "matrix": [
            [
                0.8463339631890126, 
                0.6908797714433956, 
                -0.6979622342013083, 
                0.42167208212894947, 
                0.04476079875196359, 
                0.3446753657552455, 
                0.18485092724448915
            ], 
            [
                0.5641944886961934, 
                -0.8001923821398402, 
                -0.26104001256454223, 
                0.5098644252385012, 
                -0.9006691246964587, 
                -0.24310384448175126, 
                -0.7376628145835638
            ], 
            [
                -0.7361319660846437, 
                -0.37160665084599187, 
                -0.41523975063347307, 
                0.3326388260931257, 
                -0.9268107436703934, 
                -0.5395277529943439, 
                -0.5353035524857477
            ], 
            [
                -0.8755426735148315, 
                0.9520274629028427, 
                -0.20184360597346318, 
                0.9100698263418399, 
                -0.5723922556550873, 
                0.9790966694667318, 
                0.8653710542892668
            ], 
            [
                0.72946679114103, 
                -0.6761631855269263, 
                0.6021006960344366, 
                -0.7914041684583233, 
                -0.3527241272835806, 
                0.910111302558857, 
                0.07620516127230581
            ]
        ], 
        "cols": 7
    }, 
    "input_nodes": 7
}