{
    "O_Bias": {
        "rows": 2, 
        "matrix": [
            [
                0.41626616026490404
            ], 
            [
                -0.8439419452578407
            ]
        ], 
        "cols": 1
    }, 
    "H2_Bias": {
        "rows": 5, 
        "matrix": [
            [
                0.5055037229260144
            ], 
            [
                -0.8678734392936911
            ], 
            [
                -0.4750372334984019
            ], 
            [
                0.9846282505577912
            ], 
            [
                0.5087553861427214
            ]
        ], 
        "cols": 1
    }, 
    "H2O_Weights": {
        "rows": 2, 
        "matrix": [
            [
                0.1593887836584007, 
                0.9385600317034277, 
                0.9878460159937048, 
                0.7938539554110917, 
                -0.22669680752163734
            ], 
            [
                -0.9977362868794621, 
                0.5533488446695032, 
                0.27179106000165465, 
                -0.9978370888910575, 
                0.1349817032255003
            ]
        ], 
        "cols": 5
    }, 
    "output_nodes": 2, 
    "H1H2_Weights": {
        "rows": 5, 
        "matrix": [
            [
                0.9668665390483682, 
                -0.10934113246972488, 
                -0.6230371236674086, 
                0.5328756259801455, 
                0.6546845861888999
            ], 
            [
                0.5711267870914778, 
                0.057142500778437855, 
                0.8962550328712016, 
                -0.040172269190392074, 
                -0.22115626007638012
            ], 
            [
                0.2273439321141557, 
                -0.22693435870903444, 
                -0.2835886615525631, 
                -0.4379484773983686, 
                -0.13313250612801975
            ], 
            [
                0.7524182229214491, 
                -0.2603124352267947, 
                0.4132309233895466, 
                0.9104624166352417, 
                0.8472183952916468
            ], 
            [
                0.25394681988143164, 
                0.5017750946393671, 
                -0.8018856076636649, 
                0.5526884970794594, 
                0.7287693624349125
            ]
        ], 
        "cols": 5
    }, 
    "hidden_nodes_l1": 5, 
    "hidden_nodes_l2": 5, 
    "H1_Bias": {
        "rows": 5, 
        "matrix": [
            [
                0.9551339455888497
            ], 
            [
                -0.950210672905683
            ], 
            [
                0.8017063261148192
            ], 
            [
                0.2709300125665688
            ], 
            [
                0.6717908852961862
            ]
        ], 
        "cols": 1
    }, 
    "IH1_Weights": {
        "rows": 5, 
        "matrix": [
            [
                -0.7824150940455017, 
                0.6638183582742814, 
                0.9904967535535096, 
                -0.5994708601559329, 
                0.4592494322437204, 
                0.7192521925957915, 
                0.8671092067087471
            ], 
            [
                -0.607689562783583, 
                0.03020570337563777, 
                0.2360164711592292, 
                -0.5089218539650509, 
                -0.8177865008741239, 
                -0.36001841923884825, 
                -0.6316574181561929
            ], 
            [
                -0.35327821892370315, 
                -0.7767309544128338, 
                -0.4724857351803984, 
                -0.669845713916781, 
                -0.5240331835093297, 
                0.11619190442950433, 
                0.22453031397026058
            ], 
            [
                0.6774262918927376, 
                0.8386645063540721, 
                -0.27321868376345537, 
                0.3027911762036133, 
                0.5927341005927653, 
                0.5133704332686784, 
                0.1389176478131755
            ], 
            [
                -0.01509579445082676, 
                0.5717149618407518, 
                0.4903578504711663, 
                -0.5897430431345605, 
                -0.05433541245484874, 
                0.8740492041558083, 
                -0.2878495305194875
            ]
        ], 
        "cols": 7
    }, 
    "input_nodes": 7
}