{
    "O_Bias": {
        "rows": 2, 
        "matrix": [
            [
                -0.33157125492186856
            ], 
            [
                0.7292662193481245
            ]
        ], 
        "cols": 1
    }, 
    "H2_Bias": {
        "rows": 5, 
        "matrix": [
            [
                -0.7351372533733616
            ], 
            [
                0.5129061215137998
            ], 
            [
                0.9667289344938266
            ], 
            [
                -0.5182888917193968
            ], 
            [
                -0.24255212234109758
            ]
        ], 
        "cols": 1
    }, 
    "H2O_Weights": {
        "rows": 2, 
        "matrix": [
            [
                0.8706539096335366, 
                0.4510310824213035, 
                0.5949162811948636, 
                0.2940890796563107, 
                -0.5175401977665048
            ], 
            [
                -0.11044907024800255, 
                0.031245546770526822, 
                -0.469026527877481, 
                -0.404119789937913, 
                0.5211817440027768
            ]
        ], 
        "cols": 5
    }, 
    "output_nodes": 2, 
    "H1H2_Weights": {
        "rows": 5, 
        "matrix": [
            [
                0.24062373214902122, 
                -0.06440375398237297, 
                -0.6492404512855263, 
                0.5176050582219038, 
                0.7307342169036184
            ], 
            [
                0.9519128118986819, 
                0.640616705244081, 
                -0.19964854772115626, 
                -0.7353627768585291, 
                0.41650025623840703
            ], 
            [
                0.8893461465621257, 
                -0.7645438860086766, 
                -0.7691703850707854, 
                -0.763101084229515, 
                0.03168873939357164
            ], 
            [
                -0.7342989353404854, 
                -0.550105284265658, 
                -0.3604545771828287, 
                -0.23674257388999864, 
                -0.19619543524432048
            ], 
            [
                0.4623552990424926, 
                -0.8268167780354172, 
                0.5048856448189432, 
                -0.903521999261454, 
                -0.8847272357655516
            ]
        ], 
        "cols": 5
    }, 
    "hidden_nodes_l1": 5, 
    "hidden_nodes_l2": 5, 
    "H1_Bias": {
        "rows": 5, 
        "matrix": [
            [
                0.7070930698209668
            ], 
            [
                0.9182018917890225
            ], 
            [
                -0.33368683536503263
            ], 
            [
                0.8605716393199669
            ], 
            [
                0.11958395798955235
            ]
        ], 
        "cols": 1
    }, 
    "IH1_Weights": {
        "rows": 5, 
        "matrix": [
            [
                -0.22186610603658763, 
                -0.797101964740581, 
                0.32035084998749896, 
                -0.17561212701263873, 
                0.6088379202054235, 
                0.5083024586223566, 
                0.3587705118241158
            ], 
            [
                -0.005722276849766228, 
                0.3070619541149924, 
                -0.7555936419991915, 
                -0.05616424272294429, 
                0.03146415307513095, 
                -0.30565853891604644, 
                0.396977629099021
            ], 
            [
                -0.8347042100305198, 
                -0.7595731301694806, 
                0.8038610552187235, 
                0.023937930633757487, 
                0.2739925659428297, 
                -0.29716603485260995, 
                0.6840874562208619
            ], 
            [
                -0.18760096429774253, 
                -0.9416100571476647, 
                0.6024277676300536, 
                0.09534115743323412, 
                -0.682894989746399, 
                -0.831851078587974, 
                0.428247248685959
            ], 
            [
                -0.028317881325887084, 
                0.7609567878009242, 
                0.3870075794948682, 
                0.07455740728896121, 
                -0.3916241336122619, 
                0.5068108048367792, 
                -0.14863553495021486
            ]
        ], 
        "cols": 7
    }, 
    "input_nodes": 7
}