{
    "O_Bias": {
        "rows": 2, 
        "matrix": [
            [
                1
            ], 
            [
                1
            ]
        ], 
        "cols": 1
    }, 
    "H2_Bias": {
        "rows": 5, 
        "matrix": [
            [
                1
            ], 
            [
                1
            ], 
            [
                1
            ], 
            [
                1
            ], 
            [
                1
            ]
        ], 
        "cols": 1
    }, 
    "H2O_Weights": {
        "rows": 2, 
        "matrix": [
            [
                -0.21217737117761137, 
                -0.6588293437550186, 
                0.6423392544269697, 
                -0.7961145222372814, 
                -0.7656952471765466
            ], 
            [
                -0.6673449567098242, 
                0.9649805063764165, 
                -0.10341453769058417, 
                -0.23888785158882442, 
                -0.7190458409045568
            ]
        ], 
        "cols": 5
    }, 
    "output_nodes": 2, 
    "H1H2_Weights": {
        "rows": 5, 
        "matrix": [
            [
                -0.8792596272113671, 
                0.13269476423794768, 
                0.09466072674879666, 
                -0.18608965143257872, 
                0.17334658338754783
            ], 
            [
                -0.5676858498170876, 
                0.1834561581286056, 
                0.9212584334063443, 
                0.40518885527439075, 
                -0.897678165695331
            ], 
            [
                0.7145760741784204, 
                0.6677813472253984, 
                -0.5079104947861062, 
                0.8361303014310146, 
                0.13703483799590432
            ], 
            [
                -0.13586017490192148, 
                -0.7928912538525839, 
                0.05578553451996182, 
                -0.358195883426488, 
                -0.3353743189803766
            ], 
            [
                0.9711973611639382, 
                0.27668438674535833, 
                0.008430029630913438, 
                -0.3234185851708067, 
                0.3315477176285324
            ]
        ], 
        "cols": 5
    }, 
    "hidden_nodes_l1": 5, 
    "hidden_nodes_l2": 5, 
    "H1_Bias": {
        "rows": 5, 
        "matrix": [
            [
                1
            ], 
            [
                1
            ], 
            [
                1
            ], 
            [
                1
            ], 
            [
                1
            ]
        ], 
        "cols": 1
    }, 
    "IH1_Weights": {
        "rows": 5, 
        "matrix": [
            [
                0.08177000702679416, 
                0.760176477297378, 
                0.6988084882613861, 
                0.8277257860918981, 
                0.2726464654990868, 
                -0.372601126174964, 
                0.7592374203306071
            ], 
            [
                -0.3746818258916107, 
                0.8445173645942206, 
                0.2962220476781079, 
                -0.9007060176794617, 
                0.649290997965071, 
                -0.353741760140023, 
                -0.50258776579056
            ], 
            [
                0.5271774239364297, 
                -0.3520033265274376, 
                0.44518389592485286, 
                0.6608473517040012, 
                -0.8636651811327967, 
                -0.44877894251269024, 
                -0.8814464449588
            ], 
            [
                -0.8479826645307231, 
                -0.5468141418842458, 
                0.03211249495919222, 
                0.06948149506993273, 
                -0.451381699134519, 
                0.43635896739571733, 
                0.34593012333913165
            ], 
            [
                -0.6339068629029507, 
                0.36672645730370834, 
                0.6045987183213524, 
                0.07872896840730714, 
                -0.13746716295794847, 
                0.421426468901845, 
                0.9865214121927521
            ]
        ], 
        "cols": 7
    }, 
    "input_nodes": 7
}