{
    "O_Bias": {
        "rows": 2, 
        "matrix": [
            [
                1
            ], 
            [
                1
            ]
        ], 
        "cols": 1
    }, 
    "H2_Bias": {
        "rows": 5, 
        "matrix": [
            [
                1
            ], 
            [
                1
            ], 
            [
                1
            ], 
            [
                1
            ], 
            [
                1
            ]
        ], 
        "cols": 1
    }, 
    "H2O_Weights": {
        "rows": 2, 
        "matrix": [
            [
                -3.7455620558196294, 
                -0.09025417853531548, 
                -0.3046173620161319, 
                0.28706791674175025, 
                0.430848704278601
            ], 
            [
                0.5327636792887153, 
                -0.6718722777023489, 
                -1.3102760144728647, 
                -0.4726647161069092, 
                1.3014154345014683
            ]
        ], 
        "cols": 5
    }, 
    "output_nodes": 2, 
    "H1H2_Weights": {
        "rows": 5, 
        "matrix": [
            [
                1.2622740926124343, 
                -0.8692351945227055, 
                -1.6996826317380989, 
                -0.0563294609881313, 
                -1.5499802561287557
            ], 
            [
                0.8531645232664913, 
                -0.23326820440279283, 
                1.6672124283739362, 
                -0.47120196557367144, 
                -0.9331330092817944
            ], 
            [
                0.674752239991689, 
                -1.6291673010676868, 
                -1.0833751373287401, 
                0.9725929016787263, 
                -2.3389247098039476
            ], 
            [
                -1.8370562317858887, 
                0.23622610729154725, 
                0.8379670831803026, 
                -0.43914794205103086, 
                -1.3906234579888586
            ], 
            [
                -0.4434044883924395, 
                -0.1083389682271052, 
                -0.8349403785191509, 
                0.1530721161529261, 
                0.5272020480541991
            ]
        ], 
        "cols": 5
    }, 
    "hidden_nodes_l1": 5, 
    "hidden_nodes_l2": 5, 
    "H1_Bias": {
        "rows": 5, 
        "matrix": [
            [
                1
            ], 
            [
                1
            ], 
            [
                1
            ], 
            [
                1
            ], 
            [
                1
            ]
        ], 
        "cols": 1
    }, 
    "IH1_Weights": {
        "rows": 5, 
        "matrix": [
            [
                0.24207280089158623, 
                -0.5488444303288466, 
                2.0779764843749193, 
                0.15936145479922056, 
                0.1784806924124535, 
                0.5717973560760186, 
                0.3678826962591326
            ], 
            [
                -1.5335055036637475, 
                -1.3757736036368262, 
                -1.3981419815652198, 
                0.8667423833940294, 
                -1.1592252266219745, 
                2.121222657862, 
                2.6359630166476116
            ], 
            [
                -1.4932328025300527, 
                -3.8846145030707757, 
                -0.1405137034960729, 
                -1.5868685730283911, 
                1.3599600108205332, 
                0.5197104831642908, 
                0.9467683214185245
            ], 
            [
                -2.0829256042340525, 
                -0.4942835518983417, 
                -1.483273338087979, 
                0.15143877530564923, 
                -0.07442629042867235, 
                -1.1350793716228464, 
                0.5303733855182942
            ], 
            [
                2.997429896739292, 
                0.7643063376229737, 
                0.4621501371707039, 
                -1.2193302843404124, 
                0.21649554887120992, 
                -0.8895654119580405, 
                -0.3569079502281439
            ]
        ], 
        "cols": 7
    }, 
    "input_nodes": 7
}