{
    "O_Bias": {
        "rows": 2, 
        "matrix": [
            [
                -0.2129533796920977
            ], 
            [
                -0.6992074102559216
            ]
        ], 
        "cols": 1
    }, 
    "H2_Bias": {
        "rows": 5, 
        "matrix": [
            [
                0.6760673170297562
            ], 
            [
                0.6331321555140781
            ], 
            [
                -0.7350513713908169
            ], 
            [
                -0.4297651385766621
            ], 
            [
                0.12156273079455948
            ]
        ], 
        "cols": 1
    }, 
    "H2O_Weights": {
        "rows": 2, 
        "matrix": [
            [
                0.8909502710207202, 
                -0.9478637769694374, 
                0.0217448998121339, 
                -0.7869923080349022, 
                0.20439459415964567
            ], 
            [
                0.9949821662993033, 
                -0.4601854373741996, 
                0.8098795353765236, 
                0.44164340026788573, 
                -0.36087885516645346
            ]
        ], 
        "cols": 5
    }, 
    "output_nodes": 2, 
    "H1H2_Weights": {
        "rows": 5, 
        "matrix": [
            [
                0.16763786799815694, 
                0.1588286794950835, 
                -0.9132723085818439, 
                -0.8413936595711178, 
                0.8648416734795887
            ], 
            [
                -0.7305143518650334, 
                -0.15709747074146718, 
                -0.7750092627030358, 
                0.02597350941376053, 
                0.4273649251117275
            ], 
            [
                -0.9856474639426811, 
                -0.8780076319839325, 
                0.7398847275553955, 
                0.41627265678800507, 
                -0.8935969858237376
            ], 
            [
                0.7377113485890467, 
                0.5784356528129226, 
                -0.6398533275134455, 
                0.7901887259633722, 
                0.9010573808227733
            ], 
            [
                -0.4766598935768258, 
                0.6384305985727945, 
                -0.7503690432477983, 
                0.9506015109153079, 
                0.8311296107086186
            ]
        ], 
        "cols": 5
    }, 
    "hidden_nodes_l1": 5, 
    "hidden_nodes_l2": 5, 
    "H1_Bias": {
        "rows": 5, 
        "matrix": [
            [
                -0.31791354907195624
            ], 
            [
                0.3588586967178322
            ], 
            [
                0.856825681895744
            ], 
            [
                -0.6856012823755389
            ], 
            [
                0.15962696672704269
            ]
        ], 
        "cols": 1
    }, 
    "IH1_Weights": {
        "rows": 5, 
        "matrix": [
            [
                0.3022887686381084, 
                -0.24599292468907064, 
                0.7298338351281157, 
                -0.17647805867450517, 
                0.5957026769029361, 
                0.4126989852401719, 
                -0.8120575787158788
            ], 
            [
                0.623802112695141, 
                -0.9886034070510636, 
                -0.6495214141417989, 
                -0.9667603738990527, 
                -0.3452856335615624, 
                -0.8600285289629963, 
                -0.8777462028645737
            ], 
            [
                0.1392067033687654, 
                -0.4672182272720746, 
                -0.45833090151707134, 
                0.21562939045793827, 
                0.19996692027147778, 
                -0.8371490557527321, 
                0.2801143393116936
            ], 
            [
                -0.6509994243707344, 
                0.02477481243566393, 
                -0.5731769040920855, 
                0.26546943936924716, 
                0.8526334628266292, 
                0.9924116938215235, 
                -0.977092703194872
            ], 
            [
                -0.26066334379867073, 
                0.8093070727574947, 
                0.7370819374389994, 
                -0.745959145992227, 
                0.29038642367900436, 
                0.5783570908312836, 
                -0.39970534282720793
            ]
        ], 
        "cols": 7
    }, 
    "input_nodes": 7
}