{
    "O_Bias": {
        "rows": 2, 
        "matrix": [
            [
                1
            ], 
            [
                1
            ]
        ], 
        "cols": 1
    }, 
    "H2_Bias": {
        "rows": 5, 
        "matrix": [
            [
                1
            ], 
            [
                1
            ], 
            [
                1
            ], 
            [
                1
            ], 
            [
                1
            ]
        ], 
        "cols": 1
    }, 
    "H2O_Weights": {
        "rows": 2, 
        "matrix": [
            [
                0.9246526731848184, 
                0.8012181145724285, 
                -1.8623143912753737, 
                4.094469264653537, 
                -1.2239293470612203
            ], 
            [
                -0.9100624288497475, 
                -1.26703316201898, 
                0.5023374716152544, 
                0.004192308143325621, 
                -2.1842272454515816
            ]
        ], 
        "cols": 5
    }, 
    "output_nodes": 2, 
    "H1H2_Weights": {
        "rows": 5, 
        "matrix": [
            [
                -3.0912390543409414, 
                -1.8547942775151127, 
                0.7305032096865081, 
                1.5211317908620745, 
                -0.7496556329382171
            ], 
            [
                2.1925907574753305, 
                -1.717722212951786, 
                3.1051765057473535, 
                0.9956410139636424, 
                -0.9887341648088266
            ], 
            [
                -1.6483746153005723, 
                2.246891551695746, 
                -1.7523403517981386, 
                0.11728810247148969, 
                -2.0118487971348404
            ], 
            [
                0.7597765933410343, 
                -2.42183489780948, 
                -1.6400205376428474, 
                1.0138657464165226, 
                2.347698320508176
            ], 
            [
                -0.9896450915092594, 
                -0.5957815966410646, 
                1.6876523516780002, 
                0.010208722713505591, 
                1.8488547610981358
            ]
        ], 
        "cols": 5
    }, 
    "hidden_nodes_l1": 5, 
    "hidden_nodes_l2": 5, 
    "H1_Bias": {
        "rows": 5, 
        "matrix": [
            [
                1
            ], 
            [
                1
            ], 
            [
                1
            ], 
            [
                1
            ], 
            [
                1
            ]
        ], 
        "cols": 1
    }, 
    "IH1_Weights": {
        "rows": 5, 
        "matrix": [
            [
                -0.6213372601101913, 
                0.9219673947795017, 
                0.4298265397097961, 
                -1.1032220927509322, 
                1.0698090555070294, 
                0.12271620702977482, 
                1.8781489762763137
            ], 
            [
                -1.0720644081707282, 
                -1.0964474224066845, 
                3.499292281495369, 
                0.1532998342508845, 
                -0.4604353537348896, 
                1.7800230270526616, 
                0.6648946886926297
            ], 
            [
                -2.7683639143972143, 
                0.37533031591663113, 
                -2.7071118662433107, 
                -0.6824553486641602, 
                -2.075832356209621, 
                -0.751308446980679, 
                -0.06548326929819673
            ], 
            [
                -0.11215040644498553, 
                2.012381364073629, 
                -0.961646176159221, 
                -0.10918307531294455, 
                1.738295974482501, 
                1.5375188469391408, 
                0.0009416743963278629
            ], 
            [
                1.1231231736446174, 
                -3.8526187923727506, 
                -3.479292773678586, 
                -0.878606731374702, 
                1.723333928508755, 
                3.4938129695855014, 
                -0.7700178242447954
            ]
        ], 
        "cols": 7
    }, 
    "input_nodes": 7
}