{
    "O_Bias": {
        "rows": 2, 
        "matrix": [
            [
                1
            ], 
            [
                1
            ]
        ], 
        "cols": 1
    }, 
    "H2_Bias": {
        "rows": 5, 
        "matrix": [
            [
                1
            ], 
            [
                1
            ], 
            [
                1
            ], 
            [
                1
            ], 
            [
                1
            ]
        ], 
        "cols": 1
    }, 
    "H2O_Weights": {
        "rows": 2, 
        "matrix": [
            [
                0.6915482394783363, 
                -1.5538066708757752, 
                4.004871168784875, 
                -0.46700737550464044, 
                -0.5298330062689675
            ], 
            [
                1.1169619319509363, 
                -0.13028364244665708, 
                -0.9156271350779733, 
                0.37850990854009586, 
                0.14852867889767488
            ]
        ], 
        "cols": 5
    }, 
    "output_nodes": 2, 
    "H1H2_Weights": {
        "rows": 5, 
        "matrix": [
            [
                0.7214212047764169, 
                -0.9002251116982194, 
                -0.22928006119730593, 
                -1.9220469209357836, 
                -1.9752306099500745
            ], 
            [
                1.2766426638548332, 
                -0.9124006790284491, 
                0.3988162762295545, 
                -0.2312482502939316, 
                -1.1398768743686687
            ], 
            [
                -1.5577043683754503, 
                0.9926146880826965, 
                1.7997943966844325, 
                -1.3522610479740567, 
                1.0728309273436256
            ], 
            [
                -0.26303218745496226, 
                -1.500107352504869, 
                -0.8596136196023908, 
                -0.4889302673325614, 
                -1.5738394769757411
            ], 
            [
                0.05955845098263135, 
                -2.649215111735371, 
                1.1271809297444575, 
                0.09951149597627365, 
                0.4133850241034826
            ]
        ], 
        "cols": 5
    }, 
    "hidden_nodes_l1": 5, 
    "hidden_nodes_l2": 5, 
    "H1_Bias": {
        "rows": 5, 
        "matrix": [
            [
                1
            ], 
            [
                1
            ], 
            [
                1
            ], 
            [
                1
            ], 
            [
                1
            ]
        ], 
        "cols": 1
    }, 
    "IH1_Weights": {
        "rows": 5, 
        "matrix": [
            [
                -0.4564549577783214, 
                3.161126770871903, 
                -0.04482089734140049, 
                0.35306634185602276, 
                -1.0767962792370123, 
                1.2644886822674102, 
                -0.43839351301678353
            ], 
            [
                0.2645219042362774, 
                -1.333782909242267, 
                -0.4788536202470177, 
                -0.5181937307496458, 
                1.0406296593164035, 
                0.8229683961064655, 
                -0.3278559547170684
            ], 
            [
                -1.2192935014992363, 
                -2.0194651512648853, 
                -0.5718285688793614, 
                0.898048575997441, 
                -0.18273900482996333, 
                1.1048040508952386, 
                -0.30467082502756193
            ], 
            [
                1.325343156324819, 
                1.066594959016141, 
                -0.023317945034569187, 
                1.2128486020520366, 
                0.05652166711408979, 
                0.3809939416733799, 
                -0.8939969844280432
            ], 
            [
                -2.0268305408334135, 
                0.22101551961209187, 
                -1.2876782434782077, 
                1.0738845246229438, 
                0.6124292875170276, 
                -2.2534791016870828, 
                0.989581595207782
            ]
        ], 
        "cols": 7
    }, 
    "input_nodes": 7
}